%YAML:1.0
---
opencv_ml_svm:
   format: 3
   svmType: C_SVC
   kernel:
      type: RBF
      gamma: 5.0624999999999998e-01
   C: 1.2500000000000000e+01
   term_criteria: { epsilon:1.1920928955078125e-07, iterations:1000 }
   var_count: 144
   class_count: 20
   class_labels: !!opencv-matrix
      rows: 20
      cols: 1
      dt: i
      data: [ 0, 1, 2, 3, 4, 5, 6, 7, 8, 9, 10, 11, 12, 13, 14, 15, 16,
          17, 18, 19 ]
   sv_total: 20
   support_vectors:
      - [ 4.71260518e-01, 4.71260518e-01, 3.72575819e-01, 0.,
          2.20211938e-01, 2.58538485e-01, 2.72283465e-01, 2.73319930e-02,
          4.71260518e-01, 7.04610765e-01, 2.50932551e-03, 0., 0., 0., 0.,
          2.59588007e-03, 8.65293259e-04, 7.04610765e-01, 7.04526126e-01,
          5.00028767e-03, 1.50008639e-02, 0., 0., 0., 0., 1.80597580e-03,
          7.04526126e-01, 4.02210206e-01, 9.23000798e-02, 4.02210206e-01,
          4.02210206e-01, 4.02210206e-01, 0., 2.23247170e-01,
          3.58828783e-01, 4.02210206e-01, 4.49137986e-01, 4.49137986e-01,
          4.49137986e-01, 3.08637291e-01, 3.80865008e-01, 2.63368071e-04,
          6.28963462e-04, 0., 3.87328655e-01, 5.63851774e-01,
          1.79358218e-02, 1.92315839e-02, 1.99727938e-01, 5.63851774e-01,
          0., 0., 0., 5.63851774e-01, 5.73659122e-01, 0., 0.,
          5.59962206e-02, 5.73659122e-01, 2.42995843e-02, 2.78082397e-02,
          5.01814559e-02, 5.73659122e-01, 2.50550151e-01, 0.,
          1.91938877e-02, 1.07639357e-02, 1.75762668e-01, 1.12353250e-01,
          5.43995082e-01, 5.43995082e-01, 5.43995082e-01, 4.47168611e-02,
          1.34234801e-01, 5.60883939e-01, 5.60883939e-01, 5.60883939e-01,
          0., 1.40239254e-01, 9.01296139e-02, 5.30810393e-02,
          8.55113176e-05, 2.00511116e-04, 1.95837021e-03, 4.90299046e-01,
          8.66577089e-01, 0., 0., 0., 8.55113176e-05, 3.11223464e-03, 0.,
          0., 4.71491039e-01, 8.76083076e-01, 3.67294066e-02,
          7.31726084e-03, 3.29932547e-03, 3.11223464e-03, 1.04005253e-02,
          4.73689986e-03, 1.99927366e-03, 1.26286805e-01, 5.37774622e-01,
          5.37774622e-01, 5.37774622e-01, 3.32916915e-01, 1.04005253e-02,
          4.37269919e-02, 4.41995263e-03, 1.32598579e-02, 4.21033613e-02,
          4.11815554e-01, 2.86741219e-02, 5.22966802e-01, 5.22966802e-01,
          5.22966802e-01, 0., 0., 0., 2.60763973e-01, 9.52574551e-01, 0.,
          1.16579525e-01, 3.88598405e-02, 0., 0., 0., 0., 5.18862247e-01,
          8.49878907e-01, 2.66598212e-03, 0., 0., 0., 4.23956007e-01,
          4.72386330e-01, 4.72386330e-01, 4.73074168e-02, 4.72386330e-01,
          1.69151098e-01, 5.92867658e-02, 1.97622571e-02, 3.33678126e-01 ]
      - [ 0., 5.32611549e-01, 5.32611549e-01, 7.41778538e-02,
          2.61003375e-02, 2.99279064e-01, 5.32611549e-01, 2.18870729e-01,
          0., 3.83446901e-03, 5.28963923e-01, 5.28963923e-01,
          3.93955588e-01, 5.28963923e-01, 0., 8.40288680e-03,
          2.80096242e-03, 3.83446901e-03, 4.98729140e-01, 0., 0.,
          2.42749795e-01, 6.18462980e-01, 0., 2.22363859e-01,
          7.41212815e-02, 4.98729140e-01, 5.50499916e-01, 0., 0.,
          1.40680209e-01, 5.50499916e-01, 0., 2.42909580e-01,
          8.09698552e-02, 5.50499916e-01, 0., 2.42615610e-01,
          4.55185741e-01, 4.55185741e-01, 4.55185741e-01, 2.03850269e-01,
          4.55185741e-01, 2.57409662e-01, 0., 0., 2.93367971e-02,
          2.64734805e-01, 6.79071367e-01, 6.79071367e-01, 0., 0., 0., 0.,
          0., 0., 0., 5.78971267e-01, 8.10373306e-01, 0., 0., 0., 0., 0.,
          0., 0., 5.92486680e-01, 8.00605714e-01, 0., 0., 0., 0., 0.,
          2.46241149e-02, 7.77358487e-02, 2.19313711e-01, 5.52360415e-01,
          5.52360415e-01, 5.52360415e-01, 1.56302065e-01, 0., 0.,
          3.81832127e-03, 1.37515664e-02, 5.48385203e-01, 8.31129253e-01,
          0., 0., 0., 0., 0., 0., 0., 6.19141519e-01, 7.80305088e-01, 0.,
          0., 0., 0., 0., 0., 0., 5.14559209e-01, 8.52479935e-01, 0., 0.,
          0., 0., 0., 0., 0., 0., 6.68744922e-01, 3.07107002e-01,
          6.68744922e-01, 6.75990805e-02, 0., 0., 0., 0., 0., 0., 0., 0.,
          0., 0., 0., 0., 0., 0., 0., 0., 0., 0., 0., 0., 0., 0., 0., 0.,
          0., 0., 0., 0. ]
      - [ 4.13184613e-01, 4.13184613e-01, 4.13184613e-01, 0.,
          6.72772825e-02, 3.99280250e-01, 4.13184613e-01, 2.34598100e-01,
          3.06593180e-01, 1.66800186e-01, 6.05494440e-01, 6.05494440e-01,
          0., 2.16722712e-01, 4.10710782e-01, 1.27839014e-01,
          2.99448404e-03, 2.96828300e-02, 7.69138196e-03, 2.32539009e-02,
          5.88362888e-02, 0., 4.50993717e-01, 6.26384914e-01,
          6.26384914e-01, 3.94301116e-02, 4.26362595e-03, 1.29623525e-02,
          0., 0., 0., 4.39795345e-01, 6.15756214e-01, 6.15756214e-01,
          2.04412833e-01, 1.29623525e-02, 5.20447612e-01, 5.20447612e-01,
          5.20447612e-01, 6.15859106e-02, 1.76352412e-01, 1.99664354e-01,
          2.13912874e-01, 4.44959141e-02, 2.44351551e-01, 4.60770220e-01,
          4.60770220e-01, 3.19151908e-01, 2.35979212e-03, 1.92667708e-01,
          4.60770220e-01, 4.60770220e-01, 4.52365242e-02, 7.16252625e-02,
          2.85548300e-01, 4.53705072e-01, 7.54588172e-02, 0.,
          4.83101279e-01, 4.83101279e-01, 4.83101279e-01, 4.10369746e-02,
          1.58134066e-02, 4.42904711e-01, 4.42904711e-01, 6.37670085e-02,
          0., 3.02308016e-02, 9.88575071e-02, 4.42904711e-01,
          4.42904711e-01, 4.42904711e-01, 1.16739027e-01, 3.59527409e-01,
          4.54767793e-01, 4.54767793e-01, 4.54767793e-01, 4.54767793e-01,
          1.58287451e-01, 1.32295508e-02, 9.19879135e-03, 1.49136961e-01,
          1.64899513e-01, 5.83572313e-02, 9.91524570e-03, 5.59414208e-01,
          5.59414208e-01, 5.59414208e-01, 5.05803004e-02, 9.21692420e-03,
          6.64991617e-01, 6.64991617e-01, 3.10631126e-01, 0.,
          1.54001107e-02, 7.65012279e-02, 7.81271458e-02, 1.42934229e-02,
          6.64077047e-03, 4.93447065e-01, 4.93447065e-01, 1.01322025e-01,
          0., 1.34597809e-04, 0., 4.93447065e-01, 4.93447065e-01,
          1.04141109e-01, 1.93188772e-01, 1.03883110e-01, 3.11649293e-01,
          3.31053138e-01, 4.13179457e-01, 4.13179457e-01, 4.13179457e-01,
          4.13179457e-01, 2.41181210e-01, 5.69592893e-01, 5.69592893e-01,
          5.69592893e-01, 1.16072698e-02, 1.10465080e-01, 6.21807985e-02,
          3.54028009e-02, 9.42031946e-03, 5.88056296e-02, 5.76277316e-01,
          5.76277316e-01, 3.18868309e-01, 3.55399735e-02, 4.24665004e-01,
          7.50692710e-02, 1.91615120e-01, 6.13092221e-02, 2.57598404e-02,
          6.65121004e-02, 1.12730235e-01, 3.85289937e-02, 0.,
          2.29088396e-01, 5.16568482e-01, 5.72855651e-01, 5.72855651e-01,
          3.40362312e-03 ]
      - [ 2.72506714e-01, 5.23378074e-01, 5.23378074e-01, 3.50764319e-02,
          1.56683996e-01, 2.44936392e-01, 5.23378074e-01, 3.73923592e-02,
          1.07550859e-01, 3.17824781e-02, 4.13261890e-01, 4.13261890e-01,
          3.37281495e-01, 4.13261890e-01, 4.13261890e-01, 4.13261890e-01,
          1.64020240e-01, 1.65260751e-02, 1.70209885e-01, 3.07578855e-04,
          5.59480861e-02, 1.36897445e-01, 2.29373306e-01, 1.21565253e-01,
          6.36898220e-01, 6.36898220e-01, 2.53238082e-01, 4.08780247e-01,
          7.56364241e-02, 4.08780247e-01, 4.08780247e-01, 4.08780247e-01,
          0., 3.27122420e-01, 2.18357429e-01, 4.08780247e-01,
          4.65712786e-01, 4.65712786e-01, 4.65712786e-01, 1.16478652e-01,
          1.55887723e-01, 1.02336720e-01, 3.79818767e-01, 1.72225371e-01,
          3.49883139e-01, 2.27094725e-01, 3.69721025e-01, 3.90619963e-01,
          2.78709322e-01, 3.38539958e-01, 3.90619963e-01, 3.90619963e-01,
          3.90619963e-01, 7.21655712e-02, 3.82357359e-01, 3.48124593e-01,
          3.82357359e-01, 2.43091747e-01, 3.82357359e-01, 8.46671239e-02,
          2.78821617e-01, 3.82357359e-01, 3.82357359e-01, 4.69707966e-01,
          1.12370719e-04, 3.67766689e-03, 4.42446471e-04, 2.37895221e-01,
          2.37061530e-01, 4.69707966e-01, 4.69707966e-01, 4.69707966e-01,
          1.48045316e-01, 2.76642680e-01, 4.73038763e-01, 4.73038763e-01,
          4.73038763e-01, 3.97765219e-01, 2.53963619e-01, 4.45143431e-02,
          2.88669448e-02, 1.25920698e-01, 1.79921478e-01, 4.29469913e-01,
          3.56437743e-01, 4.29469913e-01, 4.29469913e-01, 4.29469913e-01,
          2.71051526e-01, 9.58527476e-02, 7.64297545e-02, 1.06292762e-01,
          5.45260549e-01, 5.65654457e-01, 5.65654457e-01, 1.73853233e-01,
          2.94734854e-02, 1.44955516e-02, 9.31071341e-02, 6.99510798e-02,
          3.18762287e-02, 1.60204172e-02, 0., 5.36235034e-01,
          5.36235034e-01, 5.36235034e-01, 3.39017242e-01, 1.04413547e-01,
          1.78518862e-01, 4.20259327e-01, 4.20259327e-01, 1.35347351e-01,
          4.20259327e-01, 7.60157928e-02, 4.20259327e-01, 4.20259327e-01,
          2.38214090e-01, 4.02997166e-01, 4.02997166e-01, 4.02997166e-01,
          1.32054100e-02, 1.38317987e-01, 4.71968465e-02, 4.02997166e-01,
          4.02997166e-01, 4.02997166e-01, 3.10100108e-01, 9.60625038e-02,
          5.20100677e-03, 8.51087645e-02, 4.92745161e-01, 2.07251403e-02,
          4.92745161e-01, 4.92745161e-01, 3.91912311e-01, 3.77480090e-01,
          5.38364470e-01, 5.38364470e-01, 0., 4.45781052e-01,
          5.31219169e-02, 1.26956366e-02, 4.23187949e-03, 2.65966475e-01 ]
      - [ 8.41945335e-02, 1.21504506e-02, 1.55580025e-02, 0.,
          5.70893466e-01, 5.70893466e-01, 5.70893466e-01, 4.23904024e-02,
          8.52403417e-02, 4.67854559e-01, 2.18811348e-01, 4.10772935e-02,
          0., 4.85438079e-01, 4.85438079e-01, 4.85438079e-01,
          3.32372114e-02, 1.36538923e-01, 3.73484612e-01, 3.73484612e-01,
          1.40831634e-01, 0., 3.73484612e-01, 3.73484612e-01,
          3.73484612e-01, 3.73484612e-01, 3.73484612e-01, 8.82481970e-03,
          7.00881839e-01, 7.00881839e-01, 0., 0., 0., 8.75002369e-02,
          4.14939262e-02, 3.28182168e-02, 3.98246199e-01, 3.98246199e-01,
          3.98246199e-01, 1.46992296e-01, 3.98246199e-01, 3.98246199e-01,
          3.98246199e-01, 3.37149622e-03, 1.51007250e-01, 5.26310921e-01,
          5.26310921e-01, 1.34253919e-01, 1.39010414e-01, 5.26310921e-01,
          1.53155476e-01, 4.28561457e-02, 4.45270576e-02, 3.14818114e-01,
          4.20001507e-01, 2.90997684e-01, 5.34850508e-02, 1.86300967e-02,
          4.03507113e-01, 3.63456279e-01, 4.20001507e-01, 4.20001507e-01,
          2.89473146e-01, 5.97603386e-04, 5.69540620e-01, 5.69540620e-01,
          2.98369586e-01, 3.81977886e-01, 2.40445398e-02, 3.15174013e-01,
          1.03268653e-01, 7.11431634e-03, 2.92057008e-01, 4.76487249e-01,
          4.76487249e-01, 4.76487249e-01, 4.76487249e-01, 3.51002589e-02,
          8.30532238e-03, 5.33343700e-04, 2.19538938e-02, 2.80010402e-01,
          2.28768319e-01, 1.28195181e-01, 2.67157882e-01, 8.20423901e-01,
          3.15838724e-01, 7.67033827e-03, 6.15449389e-03, 1.78359747e-02,
          1.65487435e-02, 2.74437331e-02, 2.35706363e-02, 1.42682185e-02,
          5.67221045e-01, 5.67221045e-01, 5.67221045e-01, 1.65037811e-01,
          9.65392869e-03, 1.03633925e-02, 1.43344864e-01, 5.50858676e-01,
          5.50858676e-01, 5.50858676e-01, 1.07352845e-01, 2.21095219e-01,
          5.47090806e-02, 1.03633925e-02, 7.03762710e-01, 7.51027884e-03,
          2.25308370e-02, 3.35239014e-03, 4.28423956e-02, 3.64883919e-04,
          0., 0., 7.03762710e-01, 7.01012313e-01, 5.47020650e-03,
          1.64106209e-02, 9.34870157e-04, 9.75445583e-02, 6.24184776e-03,
          1.67510230e-02, 5.58367418e-03, 7.01012313e-01, 4.98027176e-01,
          9.41739790e-03, 2.82521937e-02, 0., 4.48712260e-02,
          1.19802123e-03, 4.98027176e-01, 4.98027176e-01, 4.98027176e-01,
          4.90479141e-01, 4.90479141e-01, 4.90479141e-01, 0.,
          2.83985771e-02, 0., 1.50317729e-01, 9.70569253e-02,
          4.90479141e-01 ]
      - [ 4.40679699e-01, 4.40679699e-01, 4.40679699e-01, 0., 0.,
          1.47741269e-02, 1.92022324e-01, 4.26277816e-01, 4.40679699e-01,
          4.71717864e-01, 4.97067362e-01, 4.97067362e-01, 0., 0.,
          4.90184082e-03, 1.89491123e-01, 3.12350124e-01, 3.80621016e-01,
          8.86427090e-02, 4.42238241e-01, 5.13614595e-01, 0., 0., 0.,
          5.13614595e-01, 5.13614595e-01, 6.21075602e-03, 4.22082484e-01,
          3.53312284e-01, 4.22082484e-01, 4.22082484e-01, 8.91990513e-02,
          0., 4.22082484e-01, 2.50436276e-01, 2.96082616e-01,
          1.42814323e-01, 4.60130274e-01, 4.60130274e-01, 0., 0.,
          2.84997374e-01, 4.60130274e-01, 3.83901894e-01, 3.33533257e-01,
          4.44398552e-01, 4.44398552e-01, 4.44398552e-01, 3.26226741e-01,
          5.55741079e-02, 1.72620654e-01, 4.44398552e-01, 2.29536727e-01,
          1.16633177e-01, 3.65544260e-01, 3.88541222e-01, 3.18462998e-01,
          1.64044991e-01, 1.35295570e-01, 0., 4.33761030e-01,
          4.33761030e-01, 4.33761030e-01, 6.57473505e-02, 1.38862878e-02,
          4.78019893e-01, 1.42036602e-01, 2.43279859e-01, 0.,
          4.67722088e-01, 4.81688112e-01, 4.81688112e-01, 0.,
          4.98523146e-01, 4.98523146e-01, 0., 0., 2.80930996e-02,
          4.98523146e-01, 4.98523146e-01, 1.14260577e-02, 3.41226980e-02,
          1.73347548e-01, 4.38997984e-01, 4.38997984e-01, 4.38997984e-01,
          2.64539029e-02, 4.38997984e-01, 4.38997984e-01, 1.02564823e-02,
          2.38059722e-02, 1.32996934e-02, 6.21899664e-02, 6.29667521e-01,
          6.29667521e-01, 1.02842720e-02, 2.74566654e-02, 1.91669449e-01,
          3.98174375e-01, 3.59155191e-03, 0., 1.96753140e-03,
          4.21530724e-01, 4.21530724e-01, 3.27615052e-01, 4.21530724e-01,
          4.21530724e-01, 4.21530724e-01, 0., 3.25655580e-01,
          4.29525137e-01, 4.29525137e-01, 4.29525137e-01, 2.88180206e-02,
          3.87664765e-01, 4.29525137e-01, 2.39967462e-02, 0.,
          3.17525840e-03, 9.52577405e-03, 3.50602120e-01, 4.04823810e-01,
          1.51577383e-01, 5.84469795e-01, 5.84469795e-01, 3.27608846e-02,
          0., 0., 0., 7.00106978e-01, 7.00106978e-01, 4.62795049e-03,
          1.06869891e-01, 3.56232971e-02, 0., 6.35711998e-02,
          7.46969059e-02, 8.35296661e-02, 4.86621380e-01, 4.86621380e-01,
          4.86621380e-01, 4.86621380e-01, 1.65346593e-01, 6.32501766e-02 ]
      - [ 4.30978209e-01, 1.87430382e-01, 1.21191561e-01, 0.,
          4.30978209e-01, 4.30978209e-01, 4.30978209e-01, 1.31019548e-01,
          4.30978209e-01, 5.71018636e-01, 1.20386571e-01, 3.12592578e-03,
          0., 0., 0., 4.01052944e-02, 5.71018636e-01, 5.71018636e-01,
          6.99453592e-01, 7.11838081e-02, 9.73322690e-02, 0., 0., 0.,
          2.41759769e-03, 8.05865915e-04, 6.99453592e-01, 2.55460620e-01,
          2.72938132e-01, 4.82451260e-01, 4.82451260e-01, 4.82451260e-01,
          0., 1.89850107e-02, 6.32833643e-03, 3.95914108e-01,
          3.88456345e-01, 3.88456345e-01, 3.88456345e-01, 3.51943314e-01,
          6.78008422e-02, 1.39150202e-01, 3.88456345e-01, 3.06274027e-01,
          3.88456345e-01, 3.91720206e-01, 3.91720206e-01, 3.91720206e-01,
          1.16770469e-01, 4.62779924e-02, 2.44215995e-01, 3.91720206e-01,
          3.91720206e-01, 3.91720206e-01, 5.89034855e-01, 3.23642433e-01,
          2.27344468e-01, 1.08415790e-01, 3.63183796e-01, 3.45029379e-03,
          8.63823853e-03, 4.61943168e-03, 5.89034855e-01, 4.90074009e-01,
          4.74327622e-04, 2.99136788e-02, 1.49031831e-02, 1.73259601e-01,
          5.72636351e-02, 4.90074009e-01, 4.90074009e-01, 4.90074009e-01,
          4.02493253e-02, 2.61780381e-01, 4.72317994e-01, 4.72317994e-01,
          3.12107593e-01, 1.86482549e-01, 4.72317994e-01, 3.48372668e-01,
          4.82708439e-02, 2.55970173e-02, 2.64488608e-01, 4.20092314e-01,
          4.20092314e-01, 4.20092314e-01, 2.04482213e-01, 4.20092314e-01,
          4.20092314e-01, 3.15169692e-02, 1.07299708e-01, 7.29793012e-02,
          2.34815031e-01, 6.62656248e-01, 6.62656248e-01, 1.51971690e-02,
          1.08199613e-02, 3.12989601e-03, 2.06936389e-01, 3.96347456e-02,
          1.74274074e-03, 2.77964369e-04, 1.58316240e-01, 4.83908743e-01,
          4.83908743e-01, 4.83908743e-01, 4.83908743e-01, 1.78487942e-01,
          3.01760286e-02, 5.05853355e-01, 5.05853355e-01, 1.04076363e-01,
          5.23564033e-02, 3.52656431e-02, 4.25218135e-01, 5.05853355e-01,
          1.75348833e-01, 0., 1.43683851e-01, 5.04647851e-01,
          8.57967436e-02, 8.54212716e-02, 0., 5.80530345e-01,
          5.80530345e-01, 1.73780993e-01, 0., 8.77316867e-04,
          2.63195042e-03, 4.90978748e-01, 5.36012828e-01, 0.,
          4.55768228e-01, 5.08472800e-01, 0., 4.48061019e-01,
          4.51020390e-01, 4.51020390e-01, 6.99895322e-02, 4.51020390e-01,
          2.19760492e-01, 8.14128742e-02, 2.71376241e-02, 3.52023065e-01 ]
      - [ 5.72252333e-01, 5.72252333e-01, 5.72252333e-01, 0., 0., 0.,
          1.58703793e-03, 5.29012701e-04, 1.08925492e-01, 4.58474010e-01,
          4.58474010e-01, 2.16438487e-01, 0., 4.13363039e-01,
          4.58474010e-01, 2.21664906e-01, 1.49954380e-02, 3.12650800e-01,
          2.08880659e-02, 7.05085462e-03, 2.03335136e-02, 0.,
          4.46296632e-01, 6.29406929e-01, 6.29406929e-01, 3.54712196e-02,
          8.44571460e-03, 7.70521834e-02, 3.79961031e-03, 0., 0.,
          6.08883798e-01, 6.08883798e-01, 4.92856413e-01, 5.50764799e-02,
          2.34344769e-02, 0., 6.74469829e-01, 6.74469829e-01,
          3.22445184e-02, 1.57364845e-01, 2.20290676e-01, 9.46040303e-02,
          1.28934709e-02, 0., 0., 8.47672671e-03, 2.83076335e-02,
          1.92952750e-03, 4.80205178e-01, 6.15845978e-01, 6.15845978e-01,
          6.20055199e-02, 0., 3.32865454e-02, 2.37028170e-02,
          8.58744420e-03, 0., 5.74542522e-01, 5.74542522e-01,
          5.74542522e-01, 4.64216061e-02, 8.18658620e-03, 5.69332659e-01,
          5.69332659e-01, 5.20896494e-01, 0., 3.48422378e-02,
          1.15042210e-01, 1.24588855e-01, 1.69782024e-02, 2.10815057e-01,
          0., 2.88475394e-01, 4.77325439e-01, 4.77325439e-01,
          4.77325439e-01, 4.77325439e-01, 2.56035905e-02, 7.05942628e-04,
          0., 1.56136332e-02, 1.43018007e-01, 6.79373816e-02,
          2.87150778e-03, 5.68136573e-01, 5.68136573e-01, 5.68136573e-01,
          2.43274588e-02, 8.70341249e-03, 6.80673599e-01, 6.80673599e-01,
          1.46924570e-01, 0., 4.69258539e-02, 1.31913006e-01,
          1.33328736e-01, 7.68709509e-03, 8.68698880e-02, 6.14617705e-01,
          6.14617705e-01, 4.79432702e-01, 0., 7.30562508e-02,
          5.37093543e-03, 7.31807231e-05, 2.43935719e-05, 5.59621155e-02,
          4.19109672e-01, 4.19109672e-01, 4.19109672e-01, 3.42027664e-01,
          4.19109672e-01, 4.19109672e-01, 0., 0., 2.37861481e-02,
          6.41312063e-01, 6.41312063e-01, 3.68549883e-01, 1.34858955e-02,
          1.12281412e-01, 1.13414153e-01, 5.41492850e-02, 1.78471711e-02,
          7.93938115e-02, 4.66271609e-01, 4.66271609e-01, 4.09134954e-01,
          2.92103365e-02, 3.97243470e-01, 4.66271609e-01, 1.19103283e-01,
          3.96932252e-02, 3.61513197e-02, 4.56504434e-01, 1.71034008e-01,
          3.55366915e-02, 0., 6.13788545e-01, 6.13788545e-01,
          7.31875328e-03, 2.02906947e-03, 3.78078632e-02 ]
      - [ 4.01824296e-01, 1.17110595e-01, 4.01824296e-01, 2.18598187e-01,
          3.41529012e-01, 4.01824296e-01, 4.01824296e-01, 1.02614619e-01,
          4.01824296e-01, 1.67445973e-01, 1.04559109e-01, 4.26623404e-01,
          4.26623404e-01, 4.26623404e-01, 4.26623404e-01, 4.26623404e-01,
          7.62988627e-02, 2.02258617e-01, 4.65415627e-01, 4.43452783e-02,
          2.69855391e-02, 1.98467806e-01, 2.38113344e-01, 4.65415627e-01,
          4.65415627e-01, 1.73557848e-01, 4.65415627e-01, 4.43320960e-01,
          9.97083634e-02, 4.43320960e-01, 4.43320960e-01, 4.43320960e-01,
          0., 4.62300442e-02, 2.87305471e-02, 4.43320960e-01,
          4.44729060e-01, 4.44729060e-01, 4.44729060e-01, 1.66999280e-01,
          1.99884370e-01, 6.19643219e-02, 2.11659491e-01, 2.96546966e-01,
          4.44729060e-01, 4.01333332e-01, 4.01333332e-01, 4.01333332e-01,
          6.09649681e-02, 1.19928725e-01, 1.07146464e-01, 4.01333332e-01,
          4.01333332e-01, 4.01333332e-01, 4.63616133e-01, 4.63616133e-01,
          4.63616133e-01, 1.18277244e-01, 3.46409440e-01, 1.82933826e-02,
          3.02632283e-02, 1.92354210e-02, 4.63616133e-01, 4.78090435e-01,
          1.87396363e-04, 5.93983894e-03, 3.34109674e-04, 2.19474688e-01,
          1.80937603e-01, 4.78090435e-01, 4.78090435e-01, 4.78090435e-01,
          1.02372929e-01, 2.38834485e-01, 5.03950477e-01, 5.03950477e-01,
          5.03950477e-01, 3.28745127e-01, 2.21531183e-01, 6.99155629e-02,
          5.92367612e-02, 1.24261469e-01, 2.17586279e-01, 4.09423798e-01,
          3.74500513e-01, 4.09423798e-01, 4.09423798e-01, 4.09423798e-01,
          3.27751309e-01, 1.22238711e-01, 1.12137131e-01, 1.54586941e-01,
          5.00691772e-01, 5.89303076e-01, 5.89303076e-01, 4.00866456e-02,
          2.73365770e-02, 1.26515562e-02, 9.94035453e-02, 6.36191368e-02,
          9.11678001e-03, 8.32471997e-03, 0., 5.35550416e-01,
          5.35550416e-01, 5.35550416e-01, 3.39032888e-01, 1.22742571e-01,
          1.83721796e-01, 4.19572175e-01, 4.19572175e-01, 6.73238710e-02,
          4.19572175e-01, 2.97787152e-02, 4.19572175e-01, 4.19572175e-01,
          2.76462823e-01, 4.32917356e-01, 4.32917356e-01, 4.32917356e-01,
          1.30257579e-02, 1.11069664e-01, 2.68575400e-02, 2.12980881e-01,
          4.32917356e-01, 4.32917356e-01, 1.90992355e-01, 1.19150817e-01,
          1.26407128e-02, 6.16550595e-02, 4.84901249e-01, 2.00245110e-03,
          4.84901249e-01, 4.84901249e-01, 4.84901249e-01, 4.70241755e-01,
          4.83162463e-01, 4.83162463e-01, 0., 4.69008505e-01,
          5.80155328e-02, 1.63457692e-02, 5.44858957e-03, 2.89003968e-01 ]
      - [ 4.58343565e-01, 6.72028661e-02, 6.62479624e-02, 0.,
          3.72837007e-01, 4.58343565e-01, 4.58343565e-01, 8.48174095e-02,
          4.58343565e-01, 5.58628559e-01, 9.92704034e-02, 5.58628559e-01,
          2.11735010e-01, 0., 0., 1.34832487e-02, 5.79294078e-02,
          5.58628559e-01, 2.90768482e-02, 1.32054552e-01, 5.30638099e-01,
          5.30638099e-01, 0., 0., 5.30638099e-01, 3.51930887e-01,
          8.84932280e-02, 3.15655731e-02, 5.86246252e-02, 4.75455731e-01,
          4.75455731e-01, 2.33178452e-01, 0., 4.75455731e-01,
          4.75455731e-01, 1.79480046e-01, 4.65441942e-01, 4.65441942e-01,
          4.65441942e-01, 1.94179907e-01, 3.01818073e-01, 2.12096769e-04,
          2.47245026e-03, 9.53452109e-05, 4.65441942e-01, 4.78775471e-01,
          4.82531963e-03, 7.61144096e-04, 1.98369343e-02, 3.96549672e-01,
          1.05236523e-01, 3.72553974e-01, 4.78775471e-01, 4.78775471e-01,
          7.51248971e-02, 4.38212126e-01, 4.38212126e-01, 1.45534471e-01,
          6.47568479e-02, 6.67527542e-02, 4.38212126e-01, 4.38212126e-01,
          4.38212126e-01, 2.81992257e-02, 4.59985107e-01, 3.27953547e-01,
          7.19827041e-02, 1.11562483e-01, 1.48216665e-01, 4.60387677e-01,
          4.60387677e-01, 4.60387677e-01, 1.07372336e-01, 2.28992775e-01,
          5.55612266e-01, 5.55612266e-01, 5.55612266e-01, 0.,
          4.82075941e-03, 1.00486511e-02, 6.51614591e-02, 9.49865356e-02,
          1.79392472e-03, 2.74160702e-04, 8.03160667e-02, 6.94433570e-01,
          5.53912520e-01, 3.96665365e-01, 1.28028020e-01, 1.21654131e-01,
          3.15680658e-03, 4.02237982e-01, 4.02237982e-01, 4.02237982e-01,
          4.02237982e-01, 4.02237982e-01, 4.02237982e-01, 1.56275198e-01,
          2.78799366e-02, 7.55634904e-02, 2.29160294e-01, 2.29772598e-01,
          2.37403870e-01, 4.76304829e-01, 4.76304829e-01, 4.76304829e-01,
          3.49308461e-01, 1.58893019e-01, 1.92496285e-01, 5.43648144e-03,
          1.63094439e-02, 8.66521448e-02, 5.36829174e-01, 0.,
          5.36829174e-01, 5.36829174e-01, 2.91930586e-01, 0.,
          5.26706979e-04, 1.58012088e-03, 3.31120118e-02, 9.56994176e-01,
          2.71109015e-01, 3.77251138e-03, 1.25750375e-03, 0., 0.,
          7.46606216e-02, 2.78684407e-01, 6.51542068e-01, 6.51542068e-01,
          2.46696845e-01, 1.85544770e-02, 6.18482567e-03, 0.,
          5.23231208e-01, 5.23231208e-01, 5.23231208e-01, 1.54994773e-02,
          3.81710410e-01, 6.01627156e-02, 1.52483359e-02, 5.08277863e-03,
          1.53756380e-01 ]
      - [ 5.27071655e-01, 3.25730205e-01, 1.85009446e-02, 0., 0.,
          5.27071655e-01, 5.27071655e-01, 7.65921641e-03, 2.34140396e-01,
          5.01800179e-01, 5.01800179e-01, 2.05707271e-02, 5.14252856e-03,
          7.45380446e-02, 5.01800179e-01, 4.70525324e-01, 1.56173222e-02,
          1.09245405e-01, 5.87391555e-01, 5.87391555e-01, 4.25335653e-02,
          3.06406338e-03, 1.82681680e-02, 3.74652445e-02, 4.03350294e-02,
          2.72282679e-02, 5.46033978e-01, 3.97782207e-01, 1.21160373e-02,
          9.76374671e-02, 4.70435172e-02, 1.36825711e-01, 9.84500870e-02,
          5.15207827e-01, 5.15207827e-01, 5.15207827e-01, 4.88280505e-01,
          4.88280505e-01, 2.02462822e-01, 3.66702210e-03, 1.57495514e-02,
          4.88280505e-01, 4.88280505e-01, 2.86231894e-04, 1.41092464e-02,
          6.68161035e-01, 6.68161035e-01, 5.91077916e-02, 0., 0.,
          1.97994456e-01, 9.00045857e-02, 0., 2.22833574e-01,
          4.84062046e-01, 4.79883909e-01, 3.67296934e-02, 0., 0.,
          4.84062046e-01, 4.84062046e-01, 2.45532438e-01, 1.71225686e-02,
          2.73803145e-01, 3.90261054e-01, 2.22860407e-02, 0.,
          2.54923292e-02, 5.89966476e-01, 5.89966476e-01, 2.43708506e-01,
          1.00876547e-01, 2.36803859e-01, 6.38810217e-01, 6.38810217e-01,
          7.95933604e-03, 1.49051324e-01, 2.18320087e-01, 2.26816818e-01,
          0., 1.54712805e-04, 8.85017812e-02, 4.59841311e-01,
          3.74293238e-01, 0., 4.59841311e-01, 4.59841311e-01,
          4.59841311e-01, 4.07774560e-02, 0., 1.00852013e-01,
          1.07400984e-01, 3.96851413e-02, 2.87822844e-03, 5.68046272e-01,
          5.68046272e-01, 5.68046272e-01, 1.64255984e-02, 5.23323156e-02,
          4.77154166e-01, 4.77154166e-01, 2.58575737e-01, 6.79238932e-03,
          1.23075530e-01, 4.77154166e-01, 4.77154166e-01, 1.29995206e-02,
          4.80173118e-02, 6.19016774e-02, 4.00583178e-01, 4.86031115e-01,
          4.86031115e-01, 4.86031115e-01, 3.27743530e-01, 9.11782458e-02,
          6.65036291e-02, 4.49030474e-02, 2.57883608e-01, 1.00145690e-01,
          1.43626124e-01, 2.39319578e-02, 5.84752738e-01, 5.84752738e-01,
          4.55636412e-01, 3.20081376e-02, 6.26588687e-02, 4.49627548e-01,
          4.49627548e-01, 1.20707415e-01, 7.10433573e-02, 4.49627548e-01,
          4.49627548e-01, 3.99333119e-01, 4.39945981e-02, 7.63489828e-02,
          4.91278082e-01, 4.91278082e-01, 9.30021927e-02, 3.73510495e-02,
          4.91278082e-01, 4.91278082e-01, 1.22067831e-01, 2.89085843e-02,
          6.24178275e-02 ]
      - [ 6.24510288e-01, 4.60125059e-01, 4.15228913e-03, 0.,
          4.00093235e-02, 1.85033809e-02, 7.85675738e-03, 1.16918015e-03,
          6.24510288e-01, 4.80287373e-01, 1.16702065e-01, 1.00521825e-01,
          6.04315801e-03, 4.80287373e-01, 4.80287373e-01, 4.80287373e-01,
          6.56967461e-02, 2.10766360e-01, 4.59766865e-01, 3.48664522e-01,
          1.36322975e-01, 2.02899538e-02, 4.59766865e-01, 4.59766865e-01,
          4.59766865e-01, 9.18464437e-02, 2.94440910e-02, 5.94945729e-01,
          5.94945729e-01, 3.57103139e-01, 4.12707925e-02, 1.27220839e-01,
          2.62764812e-01, 2.50489175e-01, 4.83034179e-02, 8.12662244e-02,
          1.53030152e-03, 8.60536918e-02, 4.43613529e-01, 4.43613529e-01,
          4.43613529e-01, 4.43613529e-01, 4.43613529e-01, 6.47603348e-02,
          1.53030152e-03, 3.73120159e-01, 4.26313251e-01, 1.21150620e-01,
          6.35863692e-02, 3.20491046e-01, 5.23451984e-01, 5.23451984e-01,
          5.50938882e-02, 3.65561284e-02, 5.18584073e-01, 5.18584073e-01,
          4.87351000e-01, 1.65315457e-02, 1.29323214e-01, 3.57529461e-01,
          2.61488527e-01, 2.36037206e-02, 7.54482225e-02, 6.24141872e-01,
          6.24141872e-01, 4.46463168e-01, 0., 7.00187264e-03,
          1.44189745e-02, 5.58097847e-03, 7.30133383e-03, 1.22440584e-01,
          1.57731056e-01, 4.11157817e-01, 4.11157817e-01, 3.34889352e-01,
          4.11157817e-01, 4.11157817e-01, 4.11157817e-01, 5.91740943e-02,
          1.00535616e-01, 4.48288977e-01, 4.48288977e-01, 3.96763355e-01,
          4.03317511e-02, 1.72675103e-01, 4.48288977e-01, 4.48288977e-01,
          4.53529097e-02, 2.73612365e-02, 5.92213988e-01, 5.92213988e-01,
          5.03911197e-01, 0., 9.71221738e-03, 1.44409267e-02,
          9.08007752e-03, 0., 1.95806012e-01, 5.62149942e-01,
          5.62149942e-01, 5.62149942e-01, 0., 5.69187626e-02, 0., 0., 0.,
          2.07627565e-01, 4.56162214e-01, 4.56162214e-01, 4.56162214e-01,
          2.31379479e-01, 3.42362493e-01, 3.30372244e-01, 2.96408862e-01,
          5.34288958e-02, 2.41758265e-02, 5.71319759e-01, 5.71319759e-01,
          5.71319759e-01, 8.07101489e-04, 5.91003150e-02, 5.16681895e-02,
          8.31009001e-02, 3.88325751e-02, 2.23484244e-02, 1.13046452e-01,
          1.82207540e-01, 6.77910224e-02, 0., 5.47228634e-01,
          5.47228634e-01, 5.47228634e-01, 2.13458508e-01, 4.29466693e-03,
          0., 0., 0., 0., 7.04487026e-01, 7.04487026e-01, 1.80894081e-02,
          6.02980237e-03, 0. ]
      - [ 3.96213949e-01, 3.20020050e-01, 3.96213949e-01, 3.96213949e-01,
          3.96213949e-01, 3.96213949e-01, 1.49512380e-01, 0.,
          2.93849468e-01, 4.67639267e-01, 4.58207667e-01, 4.67639267e-01,
          2.16322735e-01, 1.59293726e-01, 0., 2.29466036e-01,
          6.70117661e-02, 4.67639267e-01, 3.86143886e-02, 2.41277963e-01,
          4.38537113e-02, 0., 5.37082367e-02, 6.72303617e-01,
          6.72303617e-01, 1.34549752e-01, 8.17707926e-02, 1.74916372e-01,
          4.06536877e-01, 4.06536877e-01, 0., 3.42352316e-02,
          4.06536877e-01, 4.06536877e-01, 3.71227562e-01, 4.06536877e-01,
          3.43916237e-01, 5.09507596e-01, 5.09507596e-01, 1.79223701e-01,
          2.22805977e-01, 4.05658841e-01, 3.33337933e-01, 5.68125339e-04,
          0., 3.11542246e-02, 4.75790977e-01, 4.75790977e-01,
          3.46285664e-02, 1.26636503e-02, 4.75790977e-01, 4.75790977e-01,
          2.95650840e-01, 0., 2.79344618e-01, 5.39826930e-01,
          1.71745032e-01, 7.80408457e-03, 8.79037380e-03, 5.39826930e-01,
          5.39826930e-01, 1.12659968e-01, 3.06493696e-03, 3.53307992e-01,
          4.60703045e-01, 4.60703045e-01, 3.88564891e-03, 5.32292686e-02,
          1.25288844e-01, 4.60703045e-01, 4.60703045e-01, 5.51081151e-02,
          1.25385940e-01, 6.93266153e-01, 6.93266153e-01, 3.30377929e-02,
          9.23099965e-02, 1.88615564e-02, 7.84340203e-02, 3.92776594e-04,
          1.16162037e-03, 5.26063927e-02, 2.89884329e-01, 1.01423450e-01,
          2.32299287e-02, 1.94702707e-02, 6.67194247e-01, 6.67194247e-01,
          7.09732547e-02, 0., 3.00056815e-01, 5.04784942e-01,
          3.69728446e-01, 1.74519885e-02, 1.31733576e-03, 5.04784942e-01,
          5.04784942e-01, 5.91224171e-02, 0., 5.41827828e-02,
          5.13957083e-01, 3.76889646e-01, 1.89473163e-02, 1.58248454e-01,
          1.85762998e-02, 5.13957083e-01, 5.13957083e-01, 1.77997723e-01,
          5.80552891e-02, 2.23807991e-01, 4.69538212e-01, 4.69538212e-01,
          4.69538212e-01, 4.69538212e-01, 2.19494924e-01, 1.00117378e-01,
          4.22324017e-02, 3.87273401e-01, 4.71395314e-01, 3.01074654e-01,
          5.34796789e-02, 2.76054531e-01, 4.71395314e-01, 4.71395314e-01,
          9.41618606e-02, 9.57917143e-03, 3.94436777e-01, 5.02214551e-01,
          5.02214551e-01, 2.66568474e-02, 3.49695921e-01, 3.52280170e-01,
          2.92235523e-01, 4.96281758e-02, 1.10960368e-03, 9.96249467e-02,
          6.63010925e-02, 1.83530580e-02, 0., 4.89065886e-01,
          2.95478344e-01, 4.89065886e-01, 4.89065886e-01, 4.19039130e-01 ]
      - [ 3.87227148e-01, 3.87227148e-01, 3.87227148e-01, 3.87227148e-01,
          3.87227148e-01, 3.87227148e-01, 1.62215963e-01, 2.27593281e-03,
          2.64845252e-01, 4.25305188e-01, 4.25305188e-01, 4.25305188e-01,
          2.71051019e-01, 4.25305188e-01, 1.30162850e-01, 2.87419986e-02,
          9.58066527e-03, 4.25305188e-01, 3.87889519e-02, 3.03391796e-02,
          9.10175368e-02, 6.10993430e-02, 4.23403740e-01, 1.36887031e-02,
          5.16700804e-01, 5.16700804e-01, 5.16700804e-01, 1.21002439e-02,
          1.95455998e-02, 7.48977214e-02, 1.81786880e-01, 1.24779686e-01,
          2.24308390e-02, 5.59510231e-01, 5.59510231e-01, 5.59510231e-01,
          1.95916638e-01, 5.17574608e-01, 5.17574608e-01, 1.31357864e-01,
          2.01390237e-01, 4.24026400e-01, 4.26220089e-01, 3.74947786e-02,
          0., 1.34207159e-02, 2.54635543e-01, 4.37933594e-01,
          2.69639820e-01, 4.37933594e-01, 4.37933594e-01, 4.37933594e-01,
          3.01259309e-01, 0., 2.30054749e-04, 4.85589087e-01,
          4.85589087e-01, 4.85589087e-01, 4.85589087e-01, 1.61302850e-01,
          1.59691572e-01, 2.10176930e-02, 1.01193972e-03, 8.05927515e-02,
          5.90030886e-02, 1.94044709e-02, 0., 2.42532627e-03,
          5.52488923e-01, 5.79201639e-01, 5.79201639e-01, 8.75454322e-02,
          5.96760362e-02, 6.05735838e-01, 6.05735838e-01, 1.90452449e-02,
          5.39417081e-02, 8.61520544e-02, 4.86669719e-01, 9.49576572e-02,
          1.35890528e-04, 2.54146233e-02, 1.24768846e-01, 5.25530398e-01,
          2.94360697e-01, 3.42991427e-02, 2.44150862e-01, 5.25530398e-01,
          5.25530398e-01, 5.05732931e-02, 3.50496881e-02, 2.23211557e-01,
          4.61744398e-01, 4.61744398e-01, 4.61744398e-01, 4.61744398e-01,
          2.92596459e-01, 5.76644167e-02, 5.06624095e-02, 3.14716399e-01,
          5.25068343e-01, 6.90968260e-02, 2.19686087e-02, 2.43663833e-01,
          5.25068343e-01, 5.25068343e-01, 3.25324237e-02, 5.41491732e-02,
          6.21710271e-02, 3.05190682e-01, 4.21757698e-01, 4.21757698e-01,
          4.21757698e-01, 4.21757698e-01, 4.21757698e-01, 9.09490362e-02,
          3.33280154e-02, 3.81892413e-01, 3.81892413e-01, 2.92126507e-01,
          1.06331117e-01, 1.56492293e-01, 3.81892413e-01, 3.81892413e-01,
          3.81892413e-01, 3.81892413e-01, 4.72309351e-01, 1.08205073e-01,
          7.01363757e-02, 4.30531949e-01, 4.72309351e-01, 2.21662194e-01,
          1.62436336e-01, 2.20338821e-01, 4.72309351e-01, 4.90682274e-01,
          4.90682274e-01, 2.69051697e-02, 8.75627995e-03, 4.90682274e-01,
          4.90682274e-01, 8.50910321e-02, 1.45410430e-02, 1.54176131e-01 ]
      - [ 4.70533401e-01, 4.86432463e-01, 2.12300401e-02, 0.,
          2.43795380e-01, 4.86432463e-01, 4.86432463e-01, 3.91958375e-03,
          6.31513000e-02, 4.03347075e-01, 4.03347075e-01, 2.48968862e-02,
          7.42110284e-03, 3.27580839e-01, 4.03347075e-01, 4.03347075e-01,
          3.57699841e-01, 3.30578029e-01, 1.42038599e-01, 5.07633269e-01,
          5.07633269e-01, 6.17443700e-04, 1.21248495e-02, 1.06868232e-02,
          5.07633269e-01, 4.30658877e-01, 1.26301065e-01, 0.,
          7.04390824e-01, 7.04390824e-01, 0., 2.52117869e-02, 0., 0., 0.,
          0., 5.41843116e-01, 5.41843116e-01, 4.14849855e-02, 0.,
          7.93411359e-02, 5.41843116e-01, 3.10979247e-01, 1.13844682e-04,
          9.53038111e-02, 4.96806353e-01, 4.96806353e-01, 6.42175153e-02,
          0., 0., 2.06157807e-02, 4.96806353e-01, 4.96806353e-01,
          5.67722544e-02, 6.77321199e-03, 5.08623004e-01, 5.08623004e-01,
          1.29978746e-01, 1.18704587e-01, 3.35079692e-02, 5.08623004e-01,
          4.32047755e-01, 3.02136759e-03, 1.47658223e-02, 2.60389328e-01,
          5.33708930e-01, 1.11229062e-01, 5.33708930e-01, 5.33708930e-01,
          2.41004512e-01, 2.54379231e-02, 3.18032913e-02, 4.80646521e-01,
          4.80646521e-01, 2.46823169e-02, 2.35048179e-02, 4.80646521e-01,
          4.80646521e-01, 2.30867982e-01, 0., 1.29047528e-01,
          7.23043159e-02, 4.19372357e-02, 4.52509848e-03, 4.66199219e-02,
          5.52444756e-01, 5.52444756e-01, 5.52444756e-01, 2.41985098e-01,
          1.05642512e-01, 3.61594796e-01, 3.61594796e-01, 3.61594796e-01,
          3.61594796e-01, 3.61594796e-01, 3.61594796e-01, 3.61594796e-01,
          2.42974132e-01, 1.48644194e-01, 4.27244425e-01, 4.27244425e-01,
          1.08553834e-01, 1.82329759e-01, 4.27244425e-01, 4.27244425e-01,
          1.88196838e-01, 5.09601124e-02, 4.27244425e-01, 4.47176605e-01,
          4.45794582e-01, 6.41664565e-02, 2.69098971e-02, 4.47176605e-01,
          4.47176605e-01, 3.42126995e-01, 0., 2.73874491e-01,
          3.79162520e-01, 3.79162520e-01, 5.05519565e-03, 1.20688595e-01,
          3.79162520e-01, 3.79162520e-01, 3.79162520e-01, 3.45015049e-01,
          3.79162520e-01, 3.82868856e-01, 4.37819213e-01, 4.37819213e-01,
          7.85819814e-03, 2.80208942e-02, 8.05612803e-02, 4.37819213e-01,
          4.37819213e-01, 2.73785502e-01, 4.79212373e-01, 4.79212373e-01,
          4.79212373e-01, 3.27580757e-02, 2.73866355e-01, 0.,
          2.24435646e-02, 7.48118758e-03, 4.79212373e-01 ]
      - [ 5.12712359e-01, 5.99216074e-02, 2.46925689e-02, 0.,
          5.12712359e-01, 5.12712359e-01, 3.73944670e-01, 2.48396629e-03,
          2.49432266e-01, 2.80738026e-01, 3.39273363e-01, 4.74633664e-01,
          2.92401433e-01, 4.74633664e-01, 4.74633664e-01, 1.44863695e-01,
          7.43535981e-02, 1.16168939e-01, 4.63161804e-02, 4.20758694e-01,
          4.20758694e-01, 4.20758694e-01, 4.20758694e-01, 3.90753821e-02,
          1.83292180e-01, 4.20758694e-01, 2.70812482e-01, 7.21300079e-04,
          9.67326853e-03, 1.14273608e-01, 4.87638228e-02, 1.05925828e-01,
          2.44289003e-02, 5.67739129e-01, 5.67739129e-01, 5.67739129e-01,
          4.14590120e-01, 4.14590120e-01, 7.41905868e-02, 0.,
          4.14590120e-01, 4.14590120e-01, 4.14590120e-01, 1.43818527e-01,
          3.32032323e-01, 4.06503767e-01, 4.06503767e-01, 4.06503767e-01,
          1.02537178e-01, 1.17712647e-01, 3.50917965e-01, 4.06503767e-01,
          3.25932533e-01, 2.84977525e-01, 2.58648217e-01, 6.74129963e-01,
          6.74129963e-01, 6.16027266e-02, 2.50759460e-02, 1.47603862e-02,
          1.06766038e-01, 3.77647579e-02, 1.43606251e-03, 8.63575935e-02,
          1.29215091e-01, 3.18807960e-02, 0., 0., 5.63626051e-01,
          5.63626051e-01, 5.63626051e-01, 1.27193153e-01, 2.90921241e-01,
          4.74795073e-01, 4.74795073e-01, 0., 2.49573812e-02,
          3.51925530e-02, 4.74795073e-01, 4.74795073e-01, 8.39029029e-02,
          6.25300109e-02, 4.19810951e-01, 4.49309021e-01, 4.33564484e-01,
          6.80925399e-02, 1.66022163e-02, 4.49309021e-01, 4.49309021e-01,
          1.29748747e-01, 2.19969880e-02, 2.82491744e-01, 4.60216522e-01,
          4.60216522e-01, 4.60216522e-01, 4.60216522e-01, 2.55036920e-01,
          4.90219481e-02, 2.17654761e-02, 4.49744523e-01, 4.74569649e-01,
          2.19835743e-01, 2.04610941e-03, 2.47037768e-01, 4.74569649e-01,
          4.74569649e-01, 8.12045559e-02, 3.72409709e-02, 2.26020440e-03,
          6.49024367e-01, 6.49024367e-01, 0., 0., 0., 2.28042156e-01,
          3.12060595e-01, 4.08048145e-02, 2.42481038e-01, 4.45073508e-02,
          1.18409850e-01, 3.54570478e-01, 1.61307007e-01, 0.,
          5.06098211e-01, 5.06098211e-01, 5.06098211e-01, 4.49544191e-01,
          2.17573747e-01, 9.89736244e-02, 3.34142029e-01, 4.49544191e-01,
          3.77896190e-01, 1.21971153e-01, 2.50543863e-01, 4.49544191e-01,
          4.80637610e-01, 4.80637610e-01, 1.95494875e-01, 1.64960381e-02,
          4.80637610e-01, 4.80637610e-01, 1.59866631e-01, 4.80813496e-02,
          6.92085773e-02 ]
      - [ 4.49665636e-01, 3.83120149e-01, 1.69292297e-02, 2.52638515e-02,
          4.49665636e-01, 4.49665636e-01, 4.49665636e-01, 4.42757457e-02,
          1.92471951e-01, 4.20723528e-01, 4.20723528e-01, 2.46540725e-01,
          3.57432738e-02, 1.41078606e-01, 4.20723528e-01, 4.20723528e-01,
          4.20723528e-01, 1.69684172e-01, 5.43961048e-01, 5.43961048e-01,
          4.48291034e-01, 5.36561105e-03, 1.10430913e-02, 4.82786708e-02,
          7.84369782e-02, 2.12647095e-01, 3.84659678e-01, 1.41855359e-01,
          4.86540049e-02, 7.63244480e-02, 2.52644271e-01, 1.54608786e-01,
          5.07053221e-03, 5.41147411e-01, 5.41147411e-01, 5.41147411e-01,
          4.84603941e-01, 4.84603941e-01, 1.58344686e-01, 7.08199944e-03,
          7.14151561e-02, 4.84603941e-01, 4.84603941e-01, 1.47509634e-01,
          6.17539585e-02, 2.85953104e-01, 4.51096267e-01, 4.51096267e-01,
          6.91602528e-02, 3.27369310e-02, 4.51096267e-01, 4.51096267e-01,
          3.02523017e-01, 4.89744619e-02, 2.84619153e-01, 6.59182787e-01,
          6.59182787e-01, 2.47189235e-02, 7.89090525e-03, 3.79325375e-02,
          1.94529235e-01, 5.83649501e-02, 2.60765059e-03, 1.12878911e-01,
          2.29876682e-01, 5.81414253e-02, 0., 6.01116801e-04,
          5.48641682e-01, 5.48641682e-01, 5.48641682e-01, 1.50106892e-01,
          1.76505536e-01, 4.94563311e-01, 4.94563311e-01, 6.34580478e-03,
          1.05243817e-01, 1.09408073e-01, 4.94563311e-01, 4.53486681e-01,
          3.72945555e-02, 4.32733120e-03, 4.01885092e-01, 4.39431667e-01,
          4.39431667e-01, 6.85979053e-02, 6.10330561e-03, 4.39431667e-01,
          4.39431667e-01, 2.38613442e-01, 8.67096428e-03, 2.82131404e-01,
          4.68215764e-01, 4.68215764e-01, 4.68215764e-01, 4.68215764e-01,
          1.82782218e-01, 4.49521244e-02, 5.75847700e-02, 4.85583305e-01,
          4.85583305e-01, 5.17312847e-02, 0., 1.97119549e-01,
          4.85583305e-01, 4.85583305e-01, 3.88921276e-02, 9.45552438e-02,
          2.00449675e-02, 4.95737851e-01, 5.75777173e-01, 5.75777173e-01,
          1.34035870e-02, 0., 1.85488701e-01, 2.14487806e-01,
          6.68089837e-02, 1.78024054e-01, 3.05304416e-02, 1.17545113e-01,
          3.50830138e-01, 1.27703592e-01, 1.14663607e-02, 5.04580796e-01,
          5.26392639e-01, 5.26392639e-01, 4.53050226e-01, 3.22983354e-01,
          3.57508585e-02, 2.75999278e-01, 4.53050226e-01, 3.30319911e-01,
          1.02726005e-01, 2.79777288e-01, 4.53050226e-01, 4.94811594e-01,
          4.94811594e-01, 6.38872162e-02, 1.28020225e-02, 4.94811594e-01,
          4.94811594e-01, 8.95565897e-02, 1.99410934e-02, 5.51400483e-02 ]
      - [ 5.69380462e-01, 5.69380462e-01, 5.69380462e-01, 0., 0., 0.,
          4.37519839e-03, 9.38518904e-04, 1.47350147e-01, 4.64754730e-01,
          7.95138553e-02, 1.56315148e-01, 0., 4.64754730e-01,
          4.64754730e-01, 4.64754730e-01, 2.29363795e-02, 3.16365272e-01,
          4.80996102e-01, 4.80996102e-01, 5.38243204e-02, 0.,
          2.50476152e-01, 4.80996102e-01, 4.80996102e-01, 4.68830997e-03,
          6.41052201e-02, 5.66124380e-01, 5.66124380e-01, 1.01510257e-01,
          0., 1.00550927e-01, 5.31184494e-01, 2.18774408e-01,
          1.67522505e-02, 5.13674915e-02, 0., 5.68850577e-01,
          5.68850577e-01, 0., 1.61364228e-01, 4.78882253e-01,
          3.02901179e-01, 4.68265032e-03, 0., 1.69661239e-01,
          5.62440276e-01, 1.97565332e-02, 0., 1.26640707e-01,
          5.62440276e-01, 5.62440276e-01, 1.23787113e-02, 0.,
          5.39424062e-01, 5.39424062e-01, 1.48631498e-01, 0.,
          1.37626201e-01, 5.39424062e-01, 2.63700664e-01, 8.51536461e-05,
          1.05393678e-01, 6.87510014e-01, 6.87510014e-01, 9.78594199e-02,
          0., 0., 2.20009368e-02, 4.51663807e-02, 0., 1.88933998e-01,
          1.21654473e-01, 4.52005446e-01, 4.52005446e-01, 1.46882340e-01,
          3.76487225e-01, 4.52005446e-01, 4.52005446e-01, 1.14052575e-02,
          1.58729043e-03, 4.90361750e-01, 4.90361750e-01, 5.26542142e-02,
          3.30812708e-02, 1.71477541e-01, 4.90361750e-01, 4.90361750e-01,
          2.25672638e-03, 2.69575673e-03, 6.71681702e-01, 6.71681702e-01,
          2.94088274e-01, 0., 0., 5.71655296e-02, 3.06382701e-02, 0.,
          1.69556905e-02, 4.98753130e-01, 4.98753130e-01, 4.98753130e-01,
          0., 0., 0., 0., 0., 4.98753130e-01, 4.20940906e-01,
          5.33701599e-01, 3.74880731e-01, 1.87905297e-01, 2.29216948e-01,
          5.33701599e-01, 1.36178389e-01, 2.84414608e-02, 8.14169087e-03,
          6.73158467e-01, 6.73158467e-01, 2.62223393e-01, 9.01202112e-03,
          5.13956621e-02, 7.73409307e-02, 9.37666520e-02, 2.11313348e-02,
          1.70598552e-02, 1.57579944e-01, 1.17285915e-01, 4.12303172e-02,
          0., 6.29428327e-01, 2.74647802e-01, 6.29428327e-01,
          2.92494595e-01, 9.15324409e-03, 0., 0., 0., 0., 7.00597167e-01,
          7.00597167e-01, 1.00996532e-01, 3.36655080e-02, 0. ]
      - [ 4.84547526e-01, 6.61381185e-02, 1.62009802e-02, 2.54341811e-01,
          4.84547526e-01, 4.84547526e-01, 1.91047892e-01, 1.76929659e-03,
          4.30084288e-01, 2.78273970e-01, 3.13744664e-01, 9.62489024e-02,
          4.31866407e-01, 4.43227768e-01, 4.43227768e-01, 4.43227768e-01,
          8.76743793e-02, 1.63977861e-01, 5.06281972e-01, 5.06281972e-01,
          7.72524327e-02, 3.93185019e-03, 6.36966527e-03, 5.06281972e-01,
          4.64017302e-01, 1.96958408e-02, 6.52336255e-02, 3.03583622e-01,
          4.87165272e-01, 6.10521846e-02, 1.25160310e-02, 6.67639822e-02,
          7.19345212e-02, 4.87165272e-01, 4.87165272e-01, 4.21266139e-01,
          4.09079701e-01, 4.09079701e-01, 5.63819967e-02, 1.34914219e-01,
          4.09079701e-01, 4.09079701e-01, 4.09079701e-01, 1.83573067e-01,
          3.22649449e-01, 3.32778692e-01, 3.32778692e-01, 3.32778692e-01,
          3.32778692e-01, 3.32778692e-01, 3.32778692e-01, 3.32778692e-01,
          3.32778692e-01, 3.32778692e-01, 2.13612437e-01, 5.02221942e-01,
          5.02221942e-01, 5.02221942e-01, 1.34534612e-01, 3.82445931e-01,
          1.53533906e-01, 1.67394988e-02, 6.67532235e-02, 1.96819991e-01,
          5.38814247e-01, 1.03756949e-01, 7.67887980e-02, 3.45996618e-02,
          5.38814247e-01, 5.38814247e-01, 2.39369452e-01, 9.88014713e-02,
          3.20144981e-01, 4.67178196e-01, 4.67178196e-01, 3.34636644e-02,
          7.22296908e-02, 4.67178196e-01, 4.67178196e-01, 1.07174233e-01,
          4.46739681e-02, 3.80365491e-01, 3.80365491e-01, 3.28675777e-01,
          1.41709968e-01, 4.80864383e-03, 3.80365491e-01, 3.80365491e-01,
          3.80365491e-01, 3.80365491e-01, 4.13239777e-01, 1.04773432e-01,
          1.37807921e-01, 4.13239777e-01, 4.13239777e-01, 3.31820309e-01,
          4.43053469e-02, 4.13239777e-01, 4.13239777e-01, 5.24589121e-01,
          5.24589121e-01, 8.04178715e-02, 1.36151373e-01, 2.59341925e-01,
          5.24589121e-01, 2.35699639e-01, 5.29752579e-03, 1.46064878e-01,
          1.64834365e-01, 3.95300657e-01, 3.95300657e-01, 3.95300657e-01,
          3.95300657e-01, 3.95300657e-01, 3.95300657e-01, 1.71242207e-01,
          4.45082523e-02, 3.78837556e-01, 5.39041758e-01, 5.39041758e-01,
          3.05036665e-03, 3.05026211e-02, 2.80422598e-01, 3.37877899e-01,
          1.68512821e-01, 2.18706548e-01, 4.80605274e-01, 9.58966091e-02,
          1.90360788e-02, 1.42665086e-02, 4.80605274e-01, 9.31251943e-02,
          2.29868650e-01, 4.80605274e-01, 4.80605274e-01, 4.96545374e-01,
          4.18587267e-01, 1.64065119e-02, 1.24281016e-03, 4.96545374e-01,
          4.96545374e-01, 5.15886657e-02, 1.97312441e-02, 2.77185977e-01 ]
      - [ 4.26850289e-01, 4.26850289e-01, 4.71584909e-02, 0.,
          4.26850289e-01, 4.26850289e-01, 4.26850289e-01, 1.28152780e-02,
          2.86953270e-01, 4.02003199e-01, 2.03418359e-01, 2.71245480e-01,
          4.02003199e-01, 4.02003199e-01, 2.50710756e-01, 1.00708663e-01,
          4.02003199e-01, 4.02003199e-01, 1.77692920e-02, 1.57525659e-01,
          5.47829092e-01, 5.47829092e-01, 4.33616281e-01, 4.52729426e-02,
          9.46714729e-02, 3.45707417e-01, 2.24981770e-01, 2.23839115e-02,
          4.46079113e-02, 1.74979225e-01, 5.95570542e-02, 0.,
          4.98246461e-01, 5.95333219e-01, 5.95333219e-01, 1.75222345e-02,
          5.75531363e-01, 5.75531363e-01, 3.91198605e-01, 2.14797240e-02,
          1.08504601e-01, 2.65895039e-01, 3.02866310e-01, 0.,
          6.38839826e-02, 4.74741995e-01, 2.10031956e-01, 7.11819455e-02,
          1.01369563e-02, 1.00117801e-02, 8.75021368e-02, 4.87412184e-01,
          4.87412184e-01, 4.87412184e-01, 9.12606996e-03, 4.73327726e-01,
          4.73327726e-01, 2.44372994e-01, 1.44289108e-02, 1.86758459e-01,
          4.73327726e-01, 4.73327726e-01, 6.50186539e-02, 2.42826045e-01,
          4.71965462e-01, 4.71965462e-01, 2.20348388e-02, 4.46985960e-02,
          4.71965462e-01, 4.71965462e-01, 1.92609176e-01, 7.57230967e-02,
          6.01967759e-02, 6.99010909e-01, 6.99010909e-01, 8.97495374e-02,
          6.00859039e-02, 5.98500250e-03, 2.14293431e-02, 0.,
          2.38661468e-03, 0., 1.37603804e-01, 1.54165268e-01,
          1.60246361e-02, 1.06545249e-02, 6.30944252e-01, 6.30944252e-01,
          3.92967314e-01, 4.89552878e-03, 2.95463175e-01, 4.55564797e-01,
          4.55564797e-01, 5.52896671e-02, 1.34037361e-01, 4.55564797e-01,
          4.55564797e-01, 2.38464773e-01, 1.02680875e-02, 4.45703596e-01,
          4.45703596e-01, 4.41957265e-01, 4.97278711e-03, 6.53101057e-02,
          4.45703596e-01, 4.45703596e-01, 3.61561514e-02, 4.17562155e-03,
          7.28629082e-02, 1.73828021e-01, 4.92834479e-01, 4.92834479e-01,
          4.92834479e-01, 4.15922582e-01, 1.83610424e-01, 1.21640019e-01,
          9.69239473e-02, 3.20224851e-01, 1.38397470e-01, 2.13836893e-01,
          8.03307295e-02, 5.18622875e-01, 5.18622875e-01, 5.18622875e-01,
          4.02908586e-02, 1.11404181e-01, 4.05106544e-01, 4.05106544e-01,
          4.05106544e-01, 2.06057996e-01, 4.05106544e-01, 4.05106544e-01,
          3.54590714e-01, 4.65829074e-02, 7.09359124e-02, 5.31859517e-01,
          5.31859517e-01, 9.05953795e-02, 4.06344347e-02, 5.31859517e-01,
          3.27958614e-01, 1.61767840e-01, 4.91788648e-02, 7.87151046e-03 ]
   decision_functions:
      -
         sv_count: 2
         rho: 0.
         alpha: [ 1.0011512763246375e+00, -1.0011512763246375e+00 ]
         index: [ 0, 1 ]
      -
         sv_count: 2
         rho: 0.
         alpha: [ 1.0002006694944809e+00, -1.0002006694944809e+00 ]
         index: [ 0, 2 ]
      -
         sv_count: 2
         rho: 0.
         alpha: [ 1.0051206153173688e+00, -1.0051206153173688e+00 ]
         index: [ 0, 3 ]
      -
         sv_count: 2
         rho: 0.
         alpha: [ 1.0006807905759594e+00, -1.0006807905759594e+00 ]
         index: [ 0, 4 ]
      -
         sv_count: 2
         rho: 0.
         alpha: [ 1.0033422582618881e+00, -1.0033422582618881e+00 ]
         index: [ 0, 5 ]
      -
         sv_count: 2
         rho: 0.
         alpha: [ 1.0322261824119585e+00, -1.0322261824119585e+00 ]
         index: [ 0, 6 ]
      -
         sv_count: 2
         rho: 0.
         alpha: [ 1.0000617542253361e+00, -1.0000617542253361e+00 ]
         index: [ 0, 7 ]
      -
         sv_count: 2
         rho: 0.
         alpha: [ 1.0110791197644169e+00, -1.0110791197644169e+00 ]
         index: [ 0, 8 ]
      -
         sv_count: 2
         rho: 0.
         alpha: [ 1.0261557161617780e+00, -1.0261557161617780e+00 ]
         index: [ 0, 9 ]
      -
         sv_count: 2
         rho: 0.
         alpha: [ 1.0010724828724353e+00, -1.0010724828724353e+00 ]
         index: [ 0, 10 ]
      -
         sv_count: 2
         rho: 0.
         alpha: [ 1.0000596678094553e+00, -1.0000596678094553e+00 ]
         index: [ 0, 11 ]
      -
         sv_count: 2
         rho: 0.
         alpha: [ 1.0000916207326094e+00, -1.0000916207326094e+00 ]
         index: [ 0, 12 ]
      -
         sv_count: 2
         rho: 0.
         alpha: [ 1.0008239973709396e+00, -1.0008239973709396e+00 ]
         index: [ 0, 13 ]
      -
         sv_count: 2
         rho: 0.
         alpha: [ 1.0001527304229345e+00, -1.0001527304229345e+00 ]
         index: [ 0, 14 ]
      -
         sv_count: 2
         rho: 0.
         alpha: [ 1.0003966473637977e+00, -1.0003966473637977e+00 ]
         index: [ 0, 15 ]
      -
         sv_count: 2
         rho: 0.
         alpha: [ 1.0005362523783079e+00, -1.0005362523783079e+00 ]
         index: [ 0, 16 ]
      -
         sv_count: 2
         rho: 0.
         alpha: [ 1.0000386253016709e+00, -1.0000386253016709e+00 ]
         index: [ 0, 17 ]
      -
         sv_count: 2
         rho: 0.
         alpha: [ 1.0003089667001630e+00, -1.0003089667001630e+00 ]
         index: [ 0, 18 ]
      -
         sv_count: 2
         rho: 0.
         alpha: [ 1.0002374616748007e+00, -1.0002374616748007e+00 ]
         index: [ 0, 19 ]
      -
         sv_count: 2
         rho: 0.
         alpha: [ 1.0001377056896772e+00, -1.0001377056896772e+00 ]
         index: [ 1, 2 ]
      -
         sv_count: 2
         rho: 0.
         alpha: [ 1.0018103651195582e+00, -1.0018103651195582e+00 ]
         index: [ 1, 3 ]
      -
         sv_count: 2
         rho: 0.
         alpha: [ 1.0002691874135239e+00, -1.0002691874135239e+00 ]
         index: [ 1, 4 ]
      -
         sv_count: 2
         rho: 0.
         alpha: [ 1.0003890119739842e+00, -1.0003890119739842e+00 ]
         index: [ 1, 5 ]
      -
         sv_count: 2
         rho: 0.
         alpha: [ 1.0003718327730402e+00, -1.0003718327730402e+00 ]
         index: [ 1, 6 ]
      -
         sv_count: 2
         rho: 0.
         alpha: [ 1.0000975227086037e+00, -1.0000975227086037e+00 ]
         index: [ 1, 7 ]
      -
         sv_count: 2
         rho: 0.
         alpha: [ 1.0009365500189182e+00, -1.0009365500189182e+00 ]
         index: [ 1, 8 ]
      -
         sv_count: 2
         rho: 0.
         alpha: [ 1.0001575598973518e+00, -1.0001575598973518e+00 ]
         index: [ 1, 9 ]
      -
         sv_count: 2
         rho: 0.
         alpha: [ 1.0000542431689075e+00, -1.0000542431689075e+00 ]
         index: [ 1, 10 ]
      -
         sv_count: 2
         rho: 0.
         alpha: [ 1.0000546008357027e+00, -1.0000546008357027e+00 ]
         index: [ 1, 11 ]
      -
         sv_count: 2
         rho: 0.
         alpha: [ 1.0000259883004963e+00, -1.0000259883004963e+00 ]
         index: [ 1, 12 ]
      -
         sv_count: 2
         rho: 0.
         alpha: [ 1.0005528405208366e+00, -1.0005528405208366e+00 ]
         index: [ 1, 13 ]
      -
         sv_count: 2
         rho: 0.
         alpha: [ 1.0000997285154942e+00, -1.0000997285154942e+00 ]
         index: [ 1, 14 ]
      -
         sv_count: 2
         rho: 0.
         alpha: [ 1.0000779093401138e+00, -1.0000779093401138e+00 ]
         index: [ 1, 15 ]
      -
         sv_count: 2
         rho: 0.
         alpha: [ 1.0000610388817677e+00, -1.0000610388817677e+00 ]
         index: [ 1, 16 ]
      -
         sv_count: 2
         rho: 0.
         alpha: [ 1.0000342738454020e+00, -1.0000342738454020e+00 ]
         index: [ 1, 17 ]
      -
         sv_count: 2
         rho: 0.
         alpha: [ 1.0001790844183918e+00, -1.0001790844183918e+00 ]
         index: [ 1, 18 ]
      -
         sv_count: 2
         rho: 0.
         alpha: [ 1.0000213985253614e+00, -1.0000213985253614e+00 ]
         index: [ 1, 19 ]
      -
         sv_count: 2
         rho: 0.
         alpha: [ 1.0082436090005060e+00, -1.0082436090005060e+00 ]
         index: [ 2, 3 ]
      -
         sv_count: 2
         rho: 0.
         alpha: [ 1.0005157864711993e+00, -1.0005157864711993e+00 ]
         index: [ 2, 4 ]
      -
         sv_count: 2
         rho: 0.
         alpha: [ 1.0008783299715620e+00, -1.0008783299715620e+00 ]
         index: [ 2, 5 ]
      -
         sv_count: 2
         rho: 0.
         alpha: [ 1.0005497376609898e+00, -1.0005497376609898e+00 ]
         index: [ 2, 6 ]
      -
         sv_count: 2
         rho: 0.
         alpha: [ 1.0704561231573360e+00, -1.0704561231573360e+00 ]
         index: [ 2, 7 ]
      -
         sv_count: 2
         rho: 0.
         alpha: [ 1.0048981641033818e+00, -1.0048981641033818e+00 ]
         index: [ 2, 8 ]
      -
         sv_count: 2
         rho: 0.
         alpha: [ 1.0016450481209711e+00, -1.0016450481209711e+00 ]
         index: [ 2, 9 ]
      -
         sv_count: 2
         rho: 0.
         alpha: [ 1.0047186494628055e+00, -1.0047186494628055e+00 ]
         index: [ 2, 10 ]
      -
         sv_count: 2
         rho: 0.
         alpha: [ 1.0124750626082573e+00, -1.0124750626082573e+00 ]
         index: [ 2, 11 ]
      -
         sv_count: 2
         rho: 0.
         alpha: [ 1.0474794853812093e+00, -1.0474794853812093e+00 ]
         index: [ 2, 12 ]
      -
         sv_count: 2
         rho: 0.
         alpha: [ 1.0045283124608646e+00, -1.0045283124608646e+00 ]
         index: [ 2, 13 ]
      -
         sv_count: 2
         rho: 0.
         alpha: [ 1.0015402878825632e+00, -1.0015402878825632e+00 ]
         index: [ 2, 14 ]
      -
         sv_count: 2
         rho: 0.
         alpha: [ 1.0017095176523581e+00, -1.0017095176523581e+00 ]
         index: [ 2, 15 ]
      -
         sv_count: 2
         rho: 0.
         alpha: [ 1.0016143113958922e+00, -1.0016143113958922e+00 ]
         index: [ 2, 16 ]
      -
         sv_count: 2
         rho: 0.
         alpha: [ 1.0185594972362284e+00, -1.0185594972362284e+00 ]
         index: [ 2, 17 ]
      -
         sv_count: 2
         rho: 0.
         alpha: [ 1.0056550208315427e+00, -1.0056550208315427e+00 ]
         index: [ 2, 18 ]
      -
         sv_count: 2
         rho: 0.
         alpha: [ 1.0076407821574982e+00, -1.0076407821574982e+00 ]
         index: [ 2, 19 ]
      -
         sv_count: 2
         rho: 0.
         alpha: [ 1.0038306863326476e+00, -1.0038306863326476e+00 ]
         index: [ 3, 4 ]
      -
         sv_count: 2
         rho: 0.
         alpha: [ 1.0144660991163610e+00, -1.0144660991163610e+00 ]
         index: [ 3, 5 ]
      -
         sv_count: 2
         rho: 0.
         alpha: [ 1.0482303460433922e+00, -1.0482303460433922e+00 ]
         index: [ 3, 6 ]
      -
         sv_count: 2
         rho: 0.
         alpha: [ 1.0016697465062463e+00, -1.0016697465062463e+00 ]
         index: [ 3, 7 ]
      -
         sv_count: 2
         rho: 0.
         alpha: [ 1.5956967247027261e+00, -1.5956967247027261e+00 ]
         index: [ 3, 8 ]
      -
         sv_count: 2
         rho: 0.
         alpha: [ 1.0106563627670484e+00, -1.0106563627670484e+00 ]
         index: [ 3, 9 ]
      -
         sv_count: 2
         rho: 0.
         alpha: [ 1.0047055329056738e+00, -1.0047055329056738e+00 ]
         index: [ 3, 10 ]
      -
         sv_count: 2
         rho: 0.
         alpha: [ 1.0023466450885408e+00, -1.0023466450885408e+00 ]
         index: [ 3, 11 ]
      -
         sv_count: 2
         rho: 0.
         alpha: [ 1.0041536844699699e+00, -1.0041536844699699e+00 ]
         index: [ 3, 12 ]
      -
         sv_count: 2
         rho: 0.
         alpha: [ 1.0447254684001859e+00, -1.0447254684001859e+00 ]
         index: [ 3, 13 ]
      -
         sv_count: 2
         rho: 0.
         alpha: [ 1.0101857225751534e+00, -1.0101857225751534e+00 ]
         index: [ 3, 14 ]
      -
         sv_count: 2
         rho: 0.
         alpha: [ 1.0220460480734981e+00, -1.0220460480734981e+00 ]
         index: [ 3, 15 ]
      -
         sv_count: 2
         rho: 0.
         alpha: [ 1.0190074605181449e+00, -1.0190074605181449e+00 ]
         index: [ 3, 16 ]
      -
         sv_count: 2
         rho: 0.
         alpha: [ 1.0016423570872015e+00, -1.0016423570872015e+00 ]
         index: [ 3, 17 ]
      -
         sv_count: 2
         rho: 0.
         alpha: [ 1.0186887543054788e+00, -1.0186887543054788e+00 ]
         index: [ 3, 18 ]
      -
         sv_count: 2
         rho: 0.
         alpha: [ 1.0050871961974801e+00, -1.0050871961974801e+00 ]
         index: [ 3, 19 ]
      -
         sv_count: 2
         rho: 0.
         alpha: [ 1.0001991191540942e+00, -1.0001991191540942e+00 ]
         index: [ 4, 5 ]
      -
         sv_count: 2
         rho: 0.
         alpha: [ 1.0007941468045956e+00, -1.0007941468045956e+00 ]
         index: [ 4, 6 ]
      -
         sv_count: 2
         rho: 0.
         alpha: [ 1.0003165412257533e+00, -1.0003165412257533e+00 ]
         index: [ 4, 7 ]
      -
         sv_count: 2
         rho: 0.
         alpha: [ 1.0039565323595134e+00, -1.0039565323595134e+00 ]
         index: [ 4, 8 ]
      -
         sv_count: 2
         rho: 0.
         alpha: [ 1.0016969580018718e+00, -1.0016969580018718e+00 ]
         index: [ 4, 9 ]
      -
         sv_count: 2
         rho: 0.
         alpha: [ 1.0020211576220446e+00, -1.0020211576220446e+00 ]
         index: [ 4, 10 ]
      -
         sv_count: 2
         rho: 0.
         alpha: [ 1.0007164242847015e+00, -1.0007164242847015e+00 ]
         index: [ 4, 11 ]
      -
         sv_count: 2
         rho: 0.
         alpha: [ 1.0008573127055700e+00, -1.0008573127055700e+00 ]
         index: [ 4, 12 ]
      -
         sv_count: 2
         rho: 0.
         alpha: [ 1.0005702049571035e+00, -1.0005702049571035e+00 ]
         index: [ 4, 13 ]
      -
         sv_count: 2
         rho: 0.
         alpha: [ 1.0127505200262392e+00, -1.0127505200262392e+00 ]
         index: [ 4, 14 ]
      -
         sv_count: 2
         rho: 0.
         alpha: [ 1.0008765984020782e+00, -1.0008765984020782e+00 ]
         index: [ 4, 15 ]
      -
         sv_count: 2
         rho: 0.
         alpha: [ 1.0006818649220341e+00, -1.0006818649220341e+00 ]
         index: [ 4, 16 ]
      -
         sv_count: 2
         rho: 0.
         alpha: [ 1.0004076830941031e+00, -1.0004076830941031e+00 ]
         index: [ 4, 17 ]
      -
         sv_count: 2
         rho: 0.
         alpha: [ 1.0021306874604465e+00, -1.0021306874604465e+00 ]
         index: [ 4, 18 ]
      -
         sv_count: 2
         rho: 0.
         alpha: [ 1.0008748071296065e+00, -1.0008748071296065e+00 ]
         index: [ 4, 19 ]
      -
         sv_count: 2
         rho: 0.
         alpha: [ 1.0227254010032296e+00, -1.0227254010032296e+00 ]
         index: [ 5, 6 ]
      -
         sv_count: 2
         rho: 0.
         alpha: [ 1.0001336514739159e+00, -1.0001336514739159e+00 ]
         index: [ 5, 7 ]
      -
         sv_count: 2
         rho: 0.
         alpha: [ 1.0067500651675803e+00, -1.0067500651675803e+00 ]
         index: [ 5, 8 ]
      -
         sv_count: 2
         rho: 0.
         alpha: [ 1.0067390702980095e+00, -1.0067390702980095e+00 ]
         index: [ 5, 9 ]
      -
         sv_count: 2
         rho: 0.
         alpha: [ 1.0020462935007590e+00, -1.0020462935007590e+00 ]
         index: [ 5, 10 ]
      -
         sv_count: 2
         rho: 0.
         alpha: [ 1.0005782011544819e+00, -1.0005782011544819e+00 ]
         index: [ 5, 11 ]
      -
         sv_count: 2
         rho: 0.
         alpha: [ 1.0028631772594183e+00, -1.0028631772594183e+00 ]
         index: [ 5, 12 ]
      -
         sv_count: 2
         rho: 0.
         alpha: [ 1.0085958286860390e+00, -1.0085958286860390e+00 ]
         index: [ 5, 13 ]
      -
         sv_count: 2
         rho: 0.
         alpha: [ 1.0016125772789048e+00, -1.0016125772789048e+00 ]
         index: [ 5, 14 ]
      -
         sv_count: 2
         rho: 0.
         alpha: [ 1.0078129275318128e+00, -1.0078129275318128e+00 ]
         index: [ 5, 15 ]
      -
         sv_count: 2
         rho: 0.
         alpha: [ 1.0129269232473668e+00, -1.0129269232473668e+00 ]
         index: [ 5, 16 ]
      -
         sv_count: 2
         rho: 0.
         alpha: [ 1.0004088165072187e+00, -1.0004088165072187e+00 ]
         index: [ 5, 17 ]
      -
         sv_count: 2
         rho: 0.
         alpha: [ 1.0026171574469347e+00, -1.0026171574469347e+00 ]
         index: [ 5, 18 ]
      -
         sv_count: 2
         rho: 0.
         alpha: [ 1.0021020158614036e+00, -1.0021020158614036e+00 ]
         index: [ 5, 19 ]
      -
         sv_count: 2
         rho: 0.
         alpha: [ 1.0000943630562256e+00, -1.0000943630562256e+00 ]
         index: [ 6, 7 ]
      -
         sv_count: 2
         rho: 0.
         alpha: [ 1.1342088381698783e+00, -1.1342088381698783e+00 ]
         index: [ 6, 8 ]
      -
         sv_count: 2
         rho: 0.
         alpha: [ 1.0053497918466745e+00, -1.0053497918466745e+00 ]
         index: [ 6, 9 ]
      -
         sv_count: 2
         rho: 0.
         alpha: [ 1.0023683837114994e+00, -1.0023683837114994e+00 ]
         index: [ 6, 10 ]
      -
         sv_count: 2
         rho: 0.
         alpha: [ 1.0007232886909643e+00, -1.0007232886909643e+00 ]
         index: [ 6, 11 ]
      -
         sv_count: 2
         rho: 0.
         alpha: [ 1.0007878187132924e+00, -1.0007878187132924e+00 ]
         index: [ 6, 12 ]
      -
         sv_count: 2
         rho: 0.
         alpha: [ 1.0058614642569150e+00, -1.0058614642569150e+00 ]
         index: [ 6, 13 ]
      -
         sv_count: 2
         rho: 0.
         alpha: [ 1.0015780755787997e+00, -1.0015780755787997e+00 ]
         index: [ 6, 14 ]
      -
         sv_count: 2
         rho: 0.
         alpha: [ 1.0080661679936833e+00, -1.0080661679936833e+00 ]
         index: [ 6, 15 ]
      -
         sv_count: 2
         rho: 0.
         alpha: [ 1.0161982101889020e+00, -1.0161982101889020e+00 ]
         index: [ 6, 16 ]
      -
         sv_count: 2
         rho: 0.
         alpha: [ 1.0003513139451603e+00, -1.0003513139451603e+00 ]
         index: [ 6, 17 ]
      -
         sv_count: 2
         rho: 0.
         alpha: [ 1.0048794453678331e+00, -1.0048794453678331e+00 ]
         index: [ 6, 18 ]
      -
         sv_count: 2
         rho: 0.
         alpha: [ 1.0010591626880692e+00, -1.0010591626880692e+00 ]
         index: [ 6, 19 ]
      -
         sv_count: 2
         rho: 0.
         alpha: [ 1.0007653725442358e+00, -1.0007653725442358e+00 ]
         index: [ 7, 8 ]
      -
         sv_count: 2
         rho: 0.
         alpha: [ 1.0004175856323352e+00, -1.0004175856323352e+00 ]
         index: [ 7, 9 ]
      -
         sv_count: 2
         rho: 0.
         alpha: [ 1.0018280723456616e+00, -1.0018280723456616e+00 ]
         index: [ 7, 10 ]
      -
         sv_count: 2
         rho: 0.
         alpha: [ 1.0347469944493080e+00, -1.0347469944493080e+00 ]
         index: [ 7, 11 ]
      -
         sv_count: 2
         rho: 0.
         alpha: [ 1.0136377441766424e+00, -1.0136377441766424e+00 ]
         index: [ 7, 12 ]
      -
         sv_count: 2
         rho: 0.
         alpha: [ 1.0025845037222794e+00, -1.0025845037222794e+00 ]
         index: [ 7, 13 ]
      -
         sv_count: 2
         rho: 0.
         alpha: [ 1.0011509178729663e+00, -1.0011509178729663e+00 ]
         index: [ 7, 14 ]
      -
         sv_count: 2
         rho: 0.
         alpha: [ 1.0003145133887605e+00, -1.0003145133887605e+00 ]
         index: [ 7, 15 ]
      -
         sv_count: 2
         rho: 0.
         alpha: [ 1.0004047600931831e+00, -1.0004047600931831e+00 ]
         index: [ 7, 16 ]
      -
         sv_count: 2
         rho: 0.
         alpha: [ 1.0620061295138319e+00, -1.0620061295138319e+00 ]
         index: [ 7, 17 ]
      -
         sv_count: 2
         rho: 0.
         alpha: [ 1.0024196498728335e+00, -1.0024196498728335e+00 ]
         index: [ 7, 18 ]
      -
         sv_count: 2
         rho: 0.
         alpha: [ 1.0049834605465358e+00, -1.0049834605465358e+00 ]
         index: [ 7, 19 ]
      -
         sv_count: 2
         rho: 0.
         alpha: [ 1.0104377228277992e+00, -1.0104377228277992e+00 ]
         index: [ 8, 9 ]
      -
         sv_count: 2
         rho: 0.
         alpha: [ 1.0033067373060787e+00, -1.0033067373060787e+00 ]
         index: [ 8, 10 ]
      -
         sv_count: 2
         rho: 0.
         alpha: [ 1.0028080295575013e+00, -1.0028080295575013e+00 ]
         index: [ 8, 11 ]
      -
         sv_count: 2
         rho: 0.
         alpha: [ 1.0027955622220448e+00, -1.0027955622220448e+00 ]
         index: [ 8, 12 ]
      -
         sv_count: 2
         rho: 0.
         alpha: [ 1.0187498690677044e+00, -1.0187498690677044e+00 ]
         index: [ 8, 13 ]
      -
         sv_count: 2
         rho: 0.
         alpha: [ 1.0054777063345299e+00, -1.0054777063345299e+00 ]
         index: [ 8, 14 ]
      -
         sv_count: 2
         rho: 0.
         alpha: [ 1.0192885898317536e+00, -1.0192885898317536e+00 ]
         index: [ 8, 15 ]
      -
         sv_count: 2
         rho: 0.
         alpha: [ 1.0142492415445457e+00, -1.0142492415445457e+00 ]
         index: [ 8, 16 ]
      -
         sv_count: 2
         rho: 0.
         alpha: [ 1.0015410651324030e+00, -1.0015410651324030e+00 ]
         index: [ 8, 17 ]
      -
         sv_count: 2
         rho: 0.
         alpha: [ 1.0240617537239185e+00, -1.0240617537239185e+00 ]
         index: [ 8, 18 ]
      -
         sv_count: 2
         rho: 0.
         alpha: [ 1.0029104172877363e+00, -1.0029104172877363e+00 ]
         index: [ 8, 19 ]
      -
         sv_count: 2
         rho: 0.
         alpha: [ 1.0022122219332967e+00, -1.0022122219332967e+00 ]
         index: [ 9, 10 ]
      -
         sv_count: 2
         rho: 0.
         alpha: [ 1.0002735409143992e+00, -1.0002735409143992e+00 ]
         index: [ 9, 11 ]
      -
         sv_count: 2
         rho: 0.
         alpha: [ 1.0025632350088638e+00, -1.0025632350088638e+00 ]
         index: [ 9, 12 ]
      -
         sv_count: 2
         rho: 0.
         alpha: [ 1.0040432312935246e+00, -1.0040432312935246e+00 ]
         index: [ 9, 13 ]
      -
         sv_count: 2
         rho: 0.
         alpha: [ 1.0043720181499427e+00, -1.0043720181499427e+00 ]
         index: [ 9, 14 ]
      -
         sv_count: 2
         rho: 0.
         alpha: [ 1.0038274429857945e+00, -1.0038274429857945e+00 ]
         index: [ 9, 15 ]
      -
         sv_count: 2
         rho: 0.
         alpha: [ 1.0018492500529075e+00, -1.0018492500529075e+00 ]
         index: [ 9, 16 ]
      -
         sv_count: 2
         rho: 0.
         alpha: [ 1.0001044382438542e+00, -1.0001044382438542e+00 ]
         index: [ 9, 17 ]
      -
         sv_count: 2
         rho: 0.
         alpha: [ 1.0014686664980958e+00, -1.0014686664980958e+00 ]
         index: [ 9, 18 ]
      -
         sv_count: 2
         rho: 0.
         alpha: [ 1.0192571942155393e+00, -1.0192571942155393e+00 ]
         index: [ 9, 19 ]
      -
         sv_count: 2
         rho: 0.
         alpha: [ 1.0039644025387640e+00, -1.0039644025387640e+00 ]
         index: [ 10, 11 ]
      -
         sv_count: 2
         rho: 0.
         alpha: [ 1.0159480659024920e+00, -1.0159480659024920e+00 ]
         index: [ 10, 12 ]
      -
         sv_count: 2
         rho: 0.
         alpha: [ 1.0133834109151290e+00, -1.0133834109151290e+00 ]
         index: [ 10, 13 ]
      -
         sv_count: 2
         rho: 0.
         alpha: [ 1.0077300555568838e+00, -1.0077300555568838e+00 ]
         index: [ 10, 14 ]
      -
         sv_count: 2
         rho: 0.
         alpha: [ 1.0170861853199682e+00, -1.0170861853199682e+00 ]
         index: [ 10, 15 ]
      -
         sv_count: 2
         rho: 0.
         alpha: [ 1.0475484204712939e+00, -1.0475484204712939e+00 ]
         index: [ 10, 16 ]
      -
         sv_count: 2
         rho: 0.
         alpha: [ 1.0042875468630561e+00, -1.0042875468630561e+00 ]
         index: [ 10, 17 ]
      -
         sv_count: 2
         rho: 0.
         alpha: [ 1.0264473979248006e+00, -1.0264473979248006e+00 ]
         index: [ 10, 18 ]
      -
         sv_count: 2
         rho: 0.
         alpha: [ 1.0402428098954544e+00, -1.0402428098954544e+00 ]
         index: [ 10, 19 ]
      -
         sv_count: 2
         rho: 0.
         alpha: [ 1.0114537508673842e+00, -1.0114537508673842e+00 ]
         index: [ 11, 12 ]
      -
         sv_count: 2
         rho: 0.
         alpha: [ 1.0018992664975934e+00, -1.0018992664975934e+00 ]
         index: [ 11, 13 ]
      -
         sv_count: 2
         rho: 0.
         alpha: [ 1.0022999371875432e+00, -1.0022999371875432e+00 ]
         index: [ 11, 14 ]
      -
         sv_count: 2
         rho: 0.
         alpha: [ 1.0014646612640283e+00, -1.0014646612640283e+00 ]
         index: [ 11, 15 ]
      -
         sv_count: 2
         rho: 0.
         alpha: [ 1.0019050103324416e+00, -1.0019050103324416e+00 ]
         index: [ 11, 16 ]
      -
         sv_count: 2
         rho: 0.
         alpha: [ 1.4047323724977088e+00, -1.4047323724977088e+00 ]
         index: [ 11, 17 ]
      -
         sv_count: 2
         rho: 0.
         alpha: [ 1.0173858740849435e+00, -1.0173858740849435e+00 ]
         index: [ 11, 18 ]
      -
         sv_count: 2
         rho: 0.
         alpha: [ 1.0034059262686459e+00, -1.0034059262686459e+00 ]
         index: [ 11, 19 ]
      -
         sv_count: 2
         rho: 0.
         alpha: [ 1.0204099432155289e+00, -1.0204099432155289e+00 ]
         index: [ 12, 13 ]
      -
         sv_count: 2
         rho: 0.
         alpha: [ 1.0053179839706068e+00, -1.0053179839706068e+00 ]
         index: [ 12, 14 ]
      -
         sv_count: 2
         rho: 0.
         alpha: [ 1.0043728599282180e+00, -1.0043728599282180e+00 ]
         index: [ 12, 15 ]
      -
         sv_count: 2
         rho: 0.
         alpha: [ 1.0057154257028229e+00, -1.0057154257028229e+00 ]
         index: [ 12, 16 ]
      -
         sv_count: 2
         rho: 0.
         alpha: [ 1.0150762014313135e+00, -1.0150762014313135e+00 ]
         index: [ 12, 17 ]
      -
         sv_count: 2
         rho: 0.
         alpha: [ 1.0136267820709330e+00, -1.0136267820709330e+00 ]
         index: [ 12, 18 ]
      -
         sv_count: 2
         rho: 0.
         alpha: [ 1.0407927566173734e+00, -1.0407927566173734e+00 ]
         index: [ 12, 19 ]
      -
         sv_count: 2
         rho: 0.
         alpha: [ 1.0038953173915668e+00, -1.0038953173915668e+00 ]
         index: [ 13, 14 ]
      -
         sv_count: 2
         rho: 0.
         alpha: [ 1.1123754602404987e+00, -1.1123754602404987e+00 ]
         index: [ 13, 15 ]
      -
         sv_count: 2
         rho: 0.
         alpha: [ 1.0923719923776505e+00, -1.0923719923776505e+00 ]
         index: [ 13, 16 ]
      -
         sv_count: 2
         rho: 0.
         alpha: [ 1.0013076454706349e+00, -1.0013076454706349e+00 ]
         index: [ 13, 17 ]
      -
         sv_count: 2
         rho: 0.
         alpha: [ 1.0571506147078085e+00, -1.0571506147078085e+00 ]
         index: [ 13, 18 ]
      -
         sv_count: 2
         rho: 0.
         alpha: [ 1.0340886124314501e+00, -1.0340886124314501e+00 ]
         index: [ 13, 19 ]
      -
         sv_count: 2
         rho: 0.
         alpha: [ 1.0048303345729894e+00, -1.0048303345729894e+00 ]
         index: [ 14, 15 ]
      -
         sv_count: 2
         rho: 0.
         alpha: [ 1.0069219063102348e+00, -1.0069219063102348e+00 ]
         index: [ 14, 16 ]
      -
         sv_count: 2
         rho: 0.
         alpha: [ 1.0018405754600408e+00, -1.0018405754600408e+00 ]
         index: [ 14, 17 ]
      -
         sv_count: 2
         rho: 0.
         alpha: [ 1.0121802136609690e+00, -1.0121802136609690e+00 ]
         index: [ 14, 18 ]
      -
         sv_count: 2
         rho: 0.
         alpha: [ 1.0154975017218808e+00, -1.0154975017218808e+00 ]
         index: [ 14, 19 ]
      -
         sv_count: 2
         rho: 0.
         alpha: [ 1.4972783031219059e+00, -1.4972783031219059e+00 ]
         index: [ 15, 16 ]
      -
         sv_count: 2
         rho: 0.
         alpha: [ 1.0005910311411983e+00, -1.0005910311411983e+00 ]
         index: [ 15, 17 ]
      -
         sv_count: 2
         rho: 0.
         alpha: [ 1.0450723947964449e+00, -1.0450723947964449e+00 ]
         index: [ 15, 18 ]
      -
         sv_count: 2
         rho: 0.
         alpha: [ 1.0288782544287436e+00, -1.0288782544287436e+00 ]
         index: [ 15, 19 ]
      -
         sv_count: 2
         rho: 0.
         alpha: [ 1.0011156116411235e+00, -1.0011156116411235e+00 ]
         index: [ 16, 17 ]
      -
         sv_count: 2
         rho: 0.
         alpha: [ 1.0539864417764013e+00, -1.0539864417764013e+00 ]
         index: [ 16, 18 ]
      -
         sv_count: 2
         rho: 0.
         alpha: [ 1.0213547883463197e+00, -1.0213547883463197e+00 ]
         index: [ 16, 19 ]
      -
         sv_count: 2
         rho: 0.
         alpha: [ 1.0092683413074552e+00, -1.0092683413074552e+00 ]
         index: [ 17, 18 ]
      -
         sv_count: 2
         rho: 0.
         alpha: [ 1.0021685795851505e+00, -1.0021685795851505e+00 ]
         index: [ 17, 19 ]
      -
         sv_count: 2
         rho: 0.
         alpha: [ 1.0159152147709276e+00, -1.0159152147709276e+00 ]
         index: [ 18, 19 ]
